svm_type c_svc
kernel_type linear
nr_class 2
total_sv 62
rho -0.7185873811587591
label 1 0
probA -0.13579893216030928
probB -0.24821479044470407
nr_sv 32 30
SV
32.0 0:0.4825926487 1:0.1590411486 2:0.2903196866 3:2.0 
7.510895766845911 0:1.5991800587 1:72.3973794931 2:0.7259429402 3:59.0 
32.0 0:0.9473770844 1:0.864059708 2:0.3899084233 3:1.0 
5.569607651264188 0:0.7623304343 1:1.041302E-4 2:0.504587788 3:6.0 
32.0 0:0.4511408519 1:0.0510250648 2:0.2544470771 3:1.0 
32.0 0:0.6020555289 1:3.48958809282E-5 2:0.3191430434 3:1.0 
32.0 0:0.6426574825 1:0.3133202206 2:0.3480080294 3:1.0 
32.0 0:0.3713669451 1:0.005195395 2:0.212758018 3:1.0 
32.0 0:0.7337748862 1:6.0389054493E-5 2:0.3967596231 3:1.0 
15.97009972252206 0:0.9270974516 1:0.7206950419 2:0.4968365989 3:1.0 
32.0 0:0.5948807499 1:0.190308044 2:0.29921039 3:1.0 
32.0 0:0.5976007321 1:0.0670135328 2:0.3240604189 3:1.0 
18.679588695082934 0:0.4543553388 1:0.0695701347 2:0.2652701613 3:1.0 
32.0 0:0.5537173396 1:0.0594667008 2:0.2609668469 3:1.0 
32.0 0:0.6775533611 1:0.2506576326 2:0.3759674577 3:1.0 
32.0 0:0.8931932497 1:0.7135918595 2:0.6534720988 3:14.0 
32.0 0:0.5347160013 1:0.1083219325 2:0.2989424156 3:1.0 
32.0 0:0.6660822073 1:0.0628516819 2:0.3411415013 3:1.0 
32.0 0:0.424089723 1:0.1551164253 2:0.2137474435 3:1.0 
32.0 0:0.5781359996 1:0.0329273798 2:0.3133849853 3:1.0 
32.0 0:0.6625462327 1:0.1186050019 2:0.366616418 3:1.0 
32.0 0:0.4525729291 1:0.3338297453 2:0.2313575557 3:1.0 
32.0 0:0.8998818585 1:16.4894629717 2:0.3911100175 3:21.0 
32.0 0:0.465224001 1:0.1604626364 2:0.3033476116 3:5.0 
32.0 0:0.3897874843 1:0.1090628107 2:0.229790572 3:1.0 
32.0 0:0.3057924535 1:0.00123317 2:0.172557048 3:1.0 
32.0 0:0.3841236141 1:0.031534742 2:0.1951552507 3:1.0 
32.0 0:0.4496930589 1:0.0556070595 2:0.2275708208 3:1.0 
32.0 0:0.3378925439 1:0.1006277929 2:0.1916145246 3:1.0 
32.0 0:0.4035733288 1:0.0262001065 2:0.2208030099 3:1.0 
32.0 0:0.3322737898 1:3.810837E-4 2:0.180606523 3:1.0 
32.0 0:0.4146766292 1:0.3600186114 2:0.1675757029 3:1.0 
-32.0 0:0.7602589293 1:0.2829030835 2:0.437903739 3:2.0 
-32.0 0:0.6233759385 1:0.0504400736 2:0.3488751617 3:6.0 
-32.0 0:0.8793829899 1:0.0193529881 2:0.4033660489 3:3.0 
-32.0 0:0.5728857671 1:0.1943371378 2:0.2771627794 3:1.0 
-32.0 0:0.4918480794 1:2.302967E-4 2:0.2262871039 3:1.0 
-32.0 0:0.4542767265 1:0.0773618256 2:0.15477122 3:1.0 
-15.73019183571526 0:0.5587508261 1:0.0555897268 2:0.2051316344 3:2.0 
-32.0 0:0.3178222471 1:0.0831778145 2:0.1112560316 3:1.0 
-32.0 0:0.4277958207 1:0.0702103947 2:0.1433477975 3:1.0 
-32.0 0:0.3994840852 1:0.0380274193 2:0.1317012084 3:1.0 
-32.0 0:0.3238812317 1:0.2164954197 2:0.0982865803 3:1.0 
-32.0 0:0.3141518562 1:5.616351E-4 2:0.1022035052 3:1.0 
-32.0 0:0.4020640407 1:0.0112822104 2:0.1379878043 3:1.0 
-32.0 0:0.3832673343 1:0.0133403735 2:0.1182919476 3:1.0 
-32.0 0:0.3657114534 1:0.3288759034 2:0.1140416533 3:1.0 
-32.0 0:0.6044849836 1:0.0990939002 2:0.3074075269 3:1.0 
-32.0 0:0.5693188495 1:0.0048732227 2:0.2565880453 3:2.0 
-32.0 0:1.1317071261 1:0.33062596 2:0.7911722124 3:8.0 
-32.0 0:1.4156727791 1:1.0377976436 2:0.8306172075 3:13.0 
-32.0 0:0.4880824817 1:0.0974737461 2:0.2108517699 3:1.0 
-32.0 0:0.468907333 1:0.0160422969 2:0.2259218961 3:1.0 
-32.0 0:0.430383084 1:0.1317534411 2:0.2570205206 3:2.0 
-32.0 0:0.5141906796 1:0.2304704742 2:0.1636872004 3:1.0 
-32.0 0:0.3904181116 1:0.0222563544 2:0.2451951993 3:1.0 
-32.0 0:0.3539281309 1:0.1476147525 2:0.150634524 3:1.0 
-32.0 0:0.4167684631 1:0.0309490183 2:0.2147501283 3:1.0 
-32.0 0:0.3083768237 1:0.062329004 2:0.1877880942 3:1.0 
-32.0 0:0.587635375 1:34.0973443474 2:0.2424479649 3:13.0 
-32.0 0:0.906187444 1:0.4789664167 2:0.5952831674 3:2.0 
-32.0 0:1.1536010662 1:0.0045022243 2:0.7642038595 3:11.0 
